digraph Tree {
node [shape=box, style="filled, rounded", color="black", fontname=helvetica] ;
edge [fontname=helvetica] ;
0 [label="productions <= -0.231\ngini = 0.5\nsamples = 700\nvalue = [342, 358]\nclass = churned", fillcolor="#399de50b"] ;
1 [label="days_last <= 0.721\ngini = 0.441\nsamples = 427\nvalue = [140, 287]\nclass = churned", fillcolor="#399de583"] ;
0 -> 1 [labeldistance=2.5, labelangle=45, headlabel="True"] ;
2 [label="productions <= -0.404\ngini = 0.479\nsamples = 296\nvalue = [118, 178]\nclass = churned", fillcolor="#399de556"] ;
1 -> 2 ;
3 [label="weekends <= 0.877\ngini = 0.432\nsamples = 168\nvalue = [53, 115]\nclass = churned", fillcolor="#399de589"] ;
2 -> 3 ;
4 [label="days_max <= -1.222\ngini = 0.466\nsamples = 135\nvalue = [50, 85]\nclass = churned", fillcolor="#399de569"] ;
3 -> 4 ;
5 [label="gini = 0.0\nsamples = 4\nvalue = [4, 0]\nclass = non-churned", fillcolor="#e58139ff"] ;
4 -> 5 ;
6 [label="gini = 0.456\nsamples = 131\nvalue = [46, 85]\nclass = churned", fillcolor="#399de575"] ;
4 -> 6 ;
7 [label="productions <= -0.439\ngini = 0.165\nsamples = 33\nvalue = [3, 30]\nclass = churned", fillcolor="#399de5e6"] ;
3 -> 7 ;
8 [label="gini = 0.074\nsamples = 26\nvalue = [1, 25]\nclass = churned", fillcolor="#399de5f5"] ;
7 -> 8 ;
9 [label="gini = 0.408\nsamples = 7\nvalue = [2, 5]\nclass = churned", fillcolor="#399de599"] ;
7 -> 9 ;
10 [label="days_max <= 1.544\ngini = 0.5\nsamples = 128\nvalue = [65, 63]\nclass = non-churned", fillcolor="#e5813908"] ;
2 -> 10 ;
11 [label="weekends <= -1.25\ngini = 0.497\nsamples = 120\nvalue = [65, 55]\nclass = non-churned", fillcolor="#e5813927"] ;
10 -> 11 ;
12 [label="gini = 0.278\nsamples = 12\nvalue = [2, 10]\nclass = churned", fillcolor="#399de5cc"] ;
11 -> 12 ;
13 [label="gini = 0.486\nsamples = 108\nvalue = [63, 45]\nclass = non-churned", fillcolor="#e5813949"] ;
11 -> 13 ;
14 [label="gini = 0.0\nsamples = 8\nvalue = [0, 8]\nclass = churned", fillcolor="#399de5ff"] ;
10 -> 14 ;
15 [label="revenues <= -0.32\ngini = 0.279\nsamples = 131\nvalue = [22, 109]\nclass = churned", fillcolor="#399de5cc"] ;
1 -> 15 ;
16 [label="weekdays <= -0.688\ngini = 0.163\nsamples = 78\nvalue = [7, 71]\nclass = churned", fillcolor="#399de5e6"] ;
15 -> 16 ;
17 [label="weekdays <= -1.776\ngini = 0.375\nsamples = 20\nvalue = [5, 15]\nclass = churned", fillcolor="#399de5aa"] ;
16 -> 17 ;
18 [label="gini = 0.0\nsamples = 6\nvalue = [0, 6]\nclass = churned", fillcolor="#399de5ff"] ;
17 -> 18 ;
19 [label="gini = 0.459\nsamples = 14\nvalue = [5, 9]\nclass = churned", fillcolor="#399de571"] ;
17 -> 19 ;
20 [label="fss_C <= 0.5\ngini = 0.067\nsamples = 58\nvalue = [2, 56]\nclass = churned", fillcolor="#399de5f6"] ;
16 -> 20 ;
21 [label="gini = 0.038\nsamples = 52\nvalue = [1, 51]\nclass = churned", fillcolor="#399de5fa"] ;
20 -> 21 ;
22 [label="gini = 0.278\nsamples = 6\nvalue = [1, 5]\nclass = churned", fillcolor="#399de5cc"] ;
20 -> 22 ;
23 [label="days_last <= 1.326\ngini = 0.406\nsamples = 53\nvalue = [15, 38]\nclass = churned", fillcolor="#399de59a"] ;
15 -> 23 ;
24 [label="days_last <= 1.081\ngini = 0.5\nsamples = 14\nvalue = [7, 7]\nclass = non-churned", fillcolor="#e5813900"] ;
23 -> 24 ;
25 [label="gini = 0.32\nsamples = 5\nvalue = [1, 4]\nclass = churned", fillcolor="#399de5bf"] ;
24 -> 25 ;
26 [label="gini = 0.444\nsamples = 9\nvalue = [6, 3]\nclass = non-churned", fillcolor="#e581397f"] ;
24 -> 26 ;
27 [label="london_Y <= 0.5\ngini = 0.326\nsamples = 39\nvalue = [8, 31]\nclass = churned", fillcolor="#399de5bd"] ;
23 -> 27 ;
28 [label="gini = 0.153\nsamples = 24\nvalue = [2, 22]\nclass = churned", fillcolor="#399de5e8"] ;
27 -> 28 ;
29 [label="gini = 0.48\nsamples = 15\nvalue = [6, 9]\nclass = churned", fillcolor="#399de555"] ;
27 -> 29 ;
30 [label="days_last <= 0.375\ngini = 0.385\nsamples = 273\nvalue = [202, 71]\nclass = non-churned", fillcolor="#e58139a5"] ;
0 -> 30 [labeldistance=2.5, labelangle=-45, headlabel="False"] ;
31 [label="days_max <= 0.097\ngini = 0.324\nsamples = 236\nvalue = [188, 48]\nclass = non-churned", fillcolor="#e58139be"] ;
30 -> 31 ;
32 [label="mosaic_X <= 0.5\ngini = 0.267\nsamples = 202\nvalue = [170, 32]\nclass = non-churned", fillcolor="#e58139cf"] ;
31 -> 32 ;
33 [label="membership_dropped_Y <= 0.5\ngini = 0.24\nsamples = 194\nvalue = [167, 27]\nclass = non-churned", fillcolor="#e58139d6"] ;
32 -> 33 ;
34 [label="gini = 0.221\nsamples = 190\nvalue = [166, 24]\nclass = non-churned", fillcolor="#e58139da"] ;
33 -> 34 ;
35 [label="gini = 0.375\nsamples = 4\nvalue = [1, 3]\nclass = churned", fillcolor="#399de5aa"] ;
33 -> 35 ;
36 [label="revenues <= 0.713\ngini = 0.469\nsamples = 8\nvalue = [3, 5]\nclass = churned", fillcolor="#399de566"] ;
32 -> 36 ;
37 [label="gini = 0.0\nsamples = 4\nvalue = [0, 4]\nclass = churned", fillcolor="#399de5ff"] ;
36 -> 37 ;
38 [label="gini = 0.375\nsamples = 4\nvalue = [3, 1]\nclass = non-churned", fillcolor="#e58139aa"] ;
36 -> 38 ;
39 [label="days_last <= -0.524\ngini = 0.498\nsamples = 34\nvalue = [18, 16]\nclass = non-churned", fillcolor="#e581391c"] ;
31 -> 39 ;
40 [label="revenues <= -0.106\ngini = 0.454\nsamples = 23\nvalue = [15, 8]\nclass = non-churned", fillcolor="#e5813977"] ;
39 -> 40 ;
41 [label="gini = 0.497\nsamples = 13\nvalue = [6, 7]\nclass = churned", fillcolor="#399de524"] ;
40 -> 41 ;
42 [label="gini = 0.18\nsamples = 10\nvalue = [9, 1]\nclass = non-churned", fillcolor="#e58139e3"] ;
40 -> 42 ;
43 [label="weekends <= -0.38\ngini = 0.397\nsamples = 11\nvalue = [3, 8]\nclass = churned", fillcolor="#399de59f"] ;
39 -> 43 ;
44 [label="gini = 0.0\nsamples = 4\nvalue = [0, 4]\nclass = churned", fillcolor="#399de5ff"] ;
43 -> 44 ;
45 [label="gini = 0.49\nsamples = 7\nvalue = [3, 4]\nclass = churned", fillcolor="#399de540"] ;
43 -> 45 ;
46 [label="email_engagement <= 0.609\ngini = 0.47\nsamples = 37\nvalue = [14, 23]\nclass = churned", fillcolor="#399de564"] ;
30 -> 46 ;
47 [label="membership_dropped_X <= 0.5\ngini = 0.393\nsamples = 26\nvalue = [7, 19]\nclass = churned", fillcolor="#399de5a1"] ;
46 -> 47 ;
48 [label="gini = 0.0\nsamples = 9\nvalue = [0, 9]\nclass = churned", fillcolor="#399de5ff"] ;
47 -> 48 ;
49 [label="proximity_B <= 0.5\ngini = 0.484\nsamples = 17\nvalue = [7, 10]\nclass = churned", fillcolor="#399de54d"] ;
47 -> 49 ;
50 [label="gini = 0.375\nsamples = 12\nvalue = [3, 9]\nclass = churned", fillcolor="#399de5aa"] ;
49 -> 50 ;
51 [label="gini = 0.32\nsamples = 5\nvalue = [4, 1]\nclass = non-churned", fillcolor="#e58139bf"] ;
49 -> 51 ;
52 [label="days_mean <= -0.405\ngini = 0.463\nsamples = 11\nvalue = [7, 4]\nclass = non-churned", fillcolor="#e581396d"] ;
46 -> 52 ;
53 [label="gini = 0.245\nsamples = 7\nvalue = [6, 1]\nclass = non-churned", fillcolor="#e58139d4"] ;
52 -> 53 ;
54 [label="gini = 0.375\nsamples = 4\nvalue = [1, 3]\nclass = churned", fillcolor="#399de5aa"] ;
52 -> 54 ;
}
